93 64
https://en.wikipedia.org/wiki/Antiderivative 0.17357868 0.38360164 -0.9569966 -0.502891 0.33645353 -0.019030266 0.2200144 -0.3493351 0.039165348 0.58086693 -0.86211246 0.06436449 0.15038136 0.30232129 0.097449504 -0.10467866 -0.1456633 -0.49240956 -0.13330549 -0.43160617 -0.39566475 0.23170914 0.102442846 0.24237862 -0.17692772 -0.15122864 0.57037455 -0.09501899 0.29103795 -0.4513549 -0.2863793 -0.6322663 -0.045893975 0.6542103 -0.15472564 0.53558075 0.33503148 -0.072603434 0.697422 0.55405474 0.5213966 -0.24863385 0.3443668 0.3008946 0.16491912 -0.34668687 0.57747185 0.3074398 -0.4528788 -0.60588884 -0.089582905 -0.1926167 0.0326975 0.2013186 -0.42123318 -0.19958 -0.80473334 0.43371776 0.20936157 -0.046502467 0.16071215 -0.37674773 0.43995947 0.07892695
https://en.wikipedia.org/wiki/Adjugate_matrix 0.009978062 1.0355697 -0.4599158 -0.1744721 0.50224376 0.3290467 0.10104688 0.15156575 -0.03223199 0.5015903 -0.024559971 0.48669353 0.29854038 0.5359694 0.36950162 -0.27389395 0.209238 -0.10796036 -0.19170476 0.4004881 -0.3598634 -0.22000875 -0.08121206 -0.2925965 0.35776123 0.019750573 -0.18125086 0.35896665 0.12347254 -0.26275888 -0.12672931 -0.5689135 -0.7684582 1.0782589 0.26481658 0.37155578 -0.09093015 0.5326489 0.093811944 0.27069652 0.03626744 -0.35698536 -0.75867665 0.37801537 0.0015136035 0.33436188 0.10330216 -0.081352614 -0.68320405 -0.51485753 -0.014354087 0.08775941 -0.15313685 0.5706601 -0.31650147 -0.26455864 -0.58980113 -0.5472863 -0.33292627 -0.11693247 -0.019360019 0.16752484 -0.14029706 -0.48936805
https://en.wikipedia.org/wiki/Altitude_(triangle) 0.35416752 0.42554474 -0.34023413 -0.048210945 -0.2808517 -0.01024775 -0.19207133 -0.0931879 -0.850567 0.69114685 -0.16656716 0.8733119 0.21510445 0.71309847 0.2548169 0.076753385 0.08458026 -0.3680866 0.08599525 0.2078982 -0.17453884 -0.74901414 0.5187411 -0.14881742 -0.004204871 -0.21422 0.065465175 0.006663655 -0.29454184 -0.13199176 -0.46299195 -0.33414292 -0.3674739 0.09643998 -0.15051019 0.43157575 -0.31631315 -0.30394658 0.17364652 0.5737822 0.09329731 -0.2659373 -0.04616351 0.18255553 -0.35010222 0.28352955 0.61023366 0.45074025 -0.5339385 -1.0762013 -0.2054036 -0.03316153 0.029690001 0.31842932 0.11806745 -0.23976742 0.4411485 0.49567983 -0.079967186 -0.60905445 0.057983257 0.5043231 0.53581387 0.31995285
https://en.wikipedia.org/wiki/Area_under_the_curve_(pharmacokinetics) 0.62045205 0.028146984 -0.36100304 -0.06833447 -0.36801514 0.41353586 0.49610257 0.6212671 -0.37564257 0.12105468 -0.646715 0.3993616 0.2529389 -0.06254441 0.42452192 -0.010816329 -0.20087028 -0.64499843 -0.09779213 0.47892958 -0.24708578 -0.38629287 -0.6041498 0.45752716 0.12958327 -0.35403442 0.4560848 -0.10084464 -0.039133206 -0.69277215 0.037028354 -0.032071773 -0.14462657 0.3211738 -0.10050154 -0.0051819743 0.38350713 0.039384626 0.09748633 0.22040612 -0.061408456 0.51604664 -0.6871562 0.62547183 -0.0495335 0.18558028 0.22970256 0.5291765 -0.11275743 -0.633689 0.44141713 0.26116136 0.13249393 0.83778125 -0.34205452 -0.2596647 -0.48939556 0.2622115 -0.1802411 -0.49442217 0.8479342 0.17447822 0.28898215 -0.15424876
https://en.wikipedia.org/wiki/Absolute_value 0.086331755 0.43451875 -0.5051565 0.2838343 0.2500429 0.44286048 0.543857 -0.22440086 -0.453443 0.36548522 -0.5151512 0.7400702 0.39537507 0.31315923 -0.100836806 0.42937014 0.11771238 -0.06471598 -0.12309227 0.18624903 0.62988275 -0.67137027 -0.045696173 -0.023334686 -0.4572552 -0.18538505 0.20633008 -0.21936224 -0.3844052 -0.8094818 -0.805831 0.081021965 -0.019569278 0.51914346 0.23775806 0.43155274 0.041491076 0.11615299 -0.19920537 0.5907261 0.5091364 0.105787076 -0.42645624 0.764673 0.25865442 0.43071917 -0.11786442 0.4676856 -0.41536742 0.19922659 -0.30493 -0.1333134 0.039048176 0.0012636759 -0.05446745 -0.70703 -0.38842747 -0.16063312 0.70686823 0.084414504 0.11985779 -0.16787097 0.40628344 -0.148567
https://en.wikipedia.org/wiki/Arithmetic_mean 0.45425352 0.39546216 -0.4998746 -0.002161633 0.16272295 -0.4194755 -0.029219134 -0.17255491 -0.016793653 0.032866023 -0.43363652 0.3318639 -0.18047583 0.2924519 -0.4346315 -0.23705833 0.395835 -0.1960207 -0.2838812 0.3746181 -0.34040153 -0.122222304 -0.34675452 -0.3201595 -0.100086726 -0.2013828 0.6065821 -0.025354207 0.19941726 -1.1683546 -0.60894656 -1.0863457 0.008766998 0.07756373 0.41368008 0.54850054 -0.38220373 0.11169602 -0.4258719 0.23940761 -0.35776508 0.024690157 -0.5517563 0.24386634 -0.12144121 0.012704506 -0.3886187 -0.2948596 -0.48993418 -0.52573234 0.074055344 -0.16898757 0.24027357 0.26858836 -0.5371664 -0.30401486 -0.34426787 0.45445392 0.5902039 -0.45068538 0.38407806 0.68576205 0.33742243 0.35127997
https://en.wikipedia.org/wiki/Algebra_of_sets -0.38127986 0.43754902 -0.8134577 -0.44487777 -0.124663234 0.16160737 0.3300223 -0.30048457 -0.26338747 0.29660442 0.3984821 0.36534783 -0.0028652397 -0.09474323 0.1380591 0.26062042 -0.5067346 0.036408026 -0.62681484 -0.022391068 -0.33782747 -0.5746443 0.39736438 0.18472864 0.00622124 -0.15537213 -0.17539129 -0.39776736 0.4696519 -0.62863046 -0.50421417 -0.20430996 0.09518343 0.76382405 -0.2918799 0.4167176 -0.19689211 0.31425768 -0.44739363 0.22277944 0.19326799 0.60152465 -0.65221244 -0.22091633 -0.05181102 -0.5675952 0.23723733 0.45609075 -0.49795586 -0.7187401 0.38811684 -0.19722271 -0.33085006 0.6402719 -0.29577458 -0.712402 -0.12217642 0.43478352 0.55669516 -0.3930844 0.14107278 0.25426418 -0.00081139983 -0.26892853
https://en.wikipedia.org/wiki/Addition_theorem 0.27619705 0.5451793 -0.5569012 -0.14695123 -0.130325 0.5700683 0.43944135 0.060789995 0.1937043 0.5119435 0.21553293 1.1710987 0.052400164 -0.13352646 -0.0802479 0.12577894 0.7085993 -0.56691206 0.5910465 -0.24390773 -0.16358393 -0.026572324 -0.18556912 -0.49115416 0.032973304 0.11158961 0.064025275 -0.5027221 0.64205456 -0.79664767 -0.13397434 -0.49227518 -0.5148627 0.30519283 -0.54115885 0.40531495 0.1325884 0.71446157 0.045543805 0.3267582 0.6223711 -0.1268667 -0.13699311 0.40089116 -0.35468996 -0.006264588 -0.16607773 0.09191356 -0.25883994 -0.361648 0.23168965 0.38523588 -0.30080742 0.36385542 0.2541661 -0.36660656 0.105741404 0.5719061 0.32962015 0.015844092 0.67757124 0.038522486 0.32016024 0.21617547
https://en.wikipedia.org/wiki/Algorithm 0.117075644 0.17903274 0.3115163 0.25635326 -0.039477214 -0.36827812 0.43868372 -0.048371162 -0.52709234 0.9455069 -0.113448665 0.39205858 -0.11818633 -0.52272934 0.11002138 -0.3187012 0.49633262 -0.678491 -0.14918087 0.076553285 -0.14157158 -0.18719396 0.20716201 -0.38115865 0.07308682 0.5672024 0.6897282 0.14621903 0.49723977 -0.6146389 -0.12723963 -0.048528757 0.38035637 0.72401476 -0.051679526 0.59454155 -0.39348423 0.13994397 0.3787585 0.7425289 0.21723449 0.1353954 -0.59380424 0.40630597 -0.11375431 -0.05774812 0.05814455 0.40017632 -0.5367176 -0.49272758 0.3997016 -0.24051109 -0.0348826 -0.22341567 0.0537908 -0.7924043 -0.5199297 0.011964095 -0.098281376 -0.70190394 0.089931235 0.1556291 0.48311415 -0.531876
https://en.wikipedia.org/wiki/Angle_bisector_theorem -0.28885525 0.2414387 -0.29031438 -0.59107506 -0.35770598 0.16099398 0.17837806 0.05964354 -0.18459427 0.44788432 -0.7800991 0.7562105 0.44037628 0.4053486 0.5231613 -0.08327936 0.5123706 0.16778587 0.011211487 -0.23501715 -0.075942926 -0.19838741 -0.39367363 0.20599592 -0.10521529 0.16983677 -0.028570933 -0.5637127 0.58266866 -0.54565537 -0.30244803 -0.7023433 0.38422683 0.90075296 -0.43003187 0.7248892 0.08317551 -0.11351295 -0.21938841 0.7565511 -0.15723832 -0.047581006 -0.46954858 0.06282086 0.17229109 0.73751295 0.64448386 -0.30143756 -0.23346472 -0.098860085 0.31221193 -0.93274647 0.15011466 0.25991014 0.028679196 -0.3283598 0.11775167 -0.10553833 0.08924509 -0.30086237 0.8405886 0.5198246 0.33202034 -0.2903074
https://en.wikipedia.org/wiki/Conversely -0.27511328 0.28968334 -0.27832037 -0.41820505 -0.31666303 0.13632044 0.11957866 0.10368855 -0.22835334 0.33387265 -0.73839575 0.56858915 0.42172542 0.55853665 0.42982125 0.15605457 0.4321916 0.13157654 0.17092404 -0.13784055 -0.13428497 -0.22868125 -0.45033956 0.22109842 -0.147703 0.31675377 0.010088302 -0.44748217 0.6641747 -0.6221351 -0.30673304 -0.66397244 0.41498506 0.96965414 -0.48044696 0.66288686 -0.0051469146 -0.03221826 -0.06675017 0.68140084 0.02261719 0.01726396 -0.39343655 -0.06679734 0.16550812 0.7608009 0.59434 -0.3685319 -0.2731028 -0.09154692 0.26076636 -1.0094843 0.08174228 0.39964065 -0.038812354 -0.37116927 0.21455416 -0.1553742 0.048131846 -0.39028847 0.87671715 0.51032066 0.4716109 -0.25157532
https://en.wikipedia.org/wiki/Angle -0.30319074 0.26594245 -0.29191187 -0.43489102 -0.32941964 0.17984056 0.113540865 0.13141401 -0.23862025 0.3713918 -0.7286709 0.64012754 0.43486324 0.53985983 0.44423422 0.11403691 0.4530675 0.16010807 0.16254996 -0.14347473 -0.116508104 -0.23100299 -0.46020323 0.21481498 -0.18367416 0.27883554 0.0207756 -0.46456087 0.6783514 -0.6249776 -0.2792921 -0.66527474 0.41340792 0.9750457 -0.47446898 0.6855111 -0.008211296 -0.054554764 -0.103565834 0.71184605 -0.032850154 -0.012839315 -0.4006033 -0.052683797 0.18341768 0.71666294 0.6178555 -0.3665195 -0.2701855 -0.11935764 0.28071326 -0.9858568 0.11743228 0.3918098 -0.048310604 -0.32713997 0.15654172 -0.14873096 0.068681225 -0.3894895 0.8367744 0.48368934 0.45088482 -0.25249162
https://en.wikipedia.org/wiki/Length -0.30532068 0.3056501 -0.2994266 -0.46727496 -0.32451412 0.16457698 0.14385408 0.08499872 -0.24289478 0.38050622 -0.7707064 0.6053573 0.38137454 0.49772322 0.45121488 0.13877577 0.44881266 0.1391421 0.12945077 -0.13408083 -0.114359535 -0.22463292 -0.4410558 0.22466908 -0.12933104 0.2767215 -0.008963037 -0.4599026 0.6687203 -0.62800294 -0.27820623 -0.6768154 0.3960661 0.90910274 -0.4605688 0.65314 -0.019014684 -0.017131988 -0.053970993 0.70202494 -0.02036894 0.021854395 -0.39233923 -0.046377063 0.17023374 0.7728814 0.62141407 -0.36595613 -0.25824878 -0.076477155 0.23867446 -0.9828383 0.10312303 0.3898361 -0.024133176 -0.37880006 0.18878968 -0.15268953 0.087210186 -0.40887415 0.8759222 0.51012444 0.43736964 -0.25901872
https://en.wikipedia.org/wiki/Observational_study 0.36405033 0.32715315 -0.4764882 -0.10939802 0.09361984 -0.3890448 0.020289343 -0.105194084 -0.06744592 0.14191116 -0.36652464 0.23816782 -0.083848946 0.22806868 -0.4981585 -0.3287555 0.30704603 -0.1830548 -0.27907982 0.3857782 -0.23620343 -0.1451626 -0.21707366 -0.2645486 -0.16190907 -0.17430967 0.69906855 -0.040412426 0.15810835 -1.2154561 -0.6190787 -1.1376411 -0.048142143 0.026279017 0.46523684 0.52210987 -0.36451003 0.28304258 -0.4399821 0.2600881 -0.38503549 -0.12138406 -0.42029297 0.16832773 -0.12738325 0.14931995 -0.34784544 -0.25406626 -0.434794 -0.50831693 0.123124056 -0.1448459 0.16004233 0.39650056 -0.5050001 -0.399479 -0.4089736 0.44107077 0.5390145 -0.34097287 0.38669333 0.7953413 0.40097764 0.33072683
https://en.wikipedia.org/wiki/Calculus 0.26991257 0.4466441 -1.0906473 -0.55134606 0.33379698 -0.040940795 0.32420948 -0.2922284 -0.09439512 0.64618605 -0.8657166 -0.039353337 0.31261802 0.3034552 0.021681104 -0.11264592 -0.0139876865 -0.5444826 -0.14033373 -0.58152544 -0.29609284 0.2845597 0.025529286 0.22394775 -0.18620998 -0.10764828 0.43946916 0.0054792254 0.30360815 -0.4266143 -0.28197655 -0.6022978 -0.047558438 0.6102943 -0.09402764 0.43212578 0.34068426 -0.04043379 0.7404511 0.400236 0.46991736 -0.2329623 0.22861376 0.2774279 0.07271964 -0.36991775 0.58848494 0.33335873 -0.36556795 -0.5499804 -0.15569927 -0.24207297 0.06284709 0.205829 -0.4031602 -0.3931913 -0.7188013 0.41707715 0.23926012 -0.1520367 0.16870216 -0.27486366 0.36152205 0.100888036
https://en.wikipedia.org/wiki/Line-line_intersection -0.25198495 0.29782584 -0.26461917 -0.45478106 -0.29536393 0.13355161 0.12698668 0.07854928 -0.21111766 0.34935996 -0.74155694 0.5889039 0.42701447 0.53807396 0.40928987 0.15798953 0.414067 0.13524173 0.16260412 -0.16080096 -0.14051834 -0.23601623 -0.43985358 0.22387816 -0.12224625 0.29238322 0.023756893 -0.4334719 0.66932297 -0.6360183 -0.34108493 -0.65043014 0.39720336 0.95602405 -0.48533216 0.6717311 0.018138444 -0.064459994 -0.07003096 0.69047034 -0.001315211 0.018470421 -0.40390316 -0.047856327 0.16710202 0.7768591 0.5984701 -0.37704715 -0.29254878 -0.10607845 0.2966312 -0.99546427 0.09958359 0.39895374 -0.00727754 -0.38233536 0.21988972 -0.1358816 0.04663815 -0.35443488 0.8779296 0.5119604 0.4709633 -0.28434312
https://en.wikipedia.org/wiki/Union_(set_theory) -0.3324524 0.55803037 -0.87639517 -0.34866887 -0.22199295 -0.0068091517 0.375223 -0.28435543 -0.19038348 0.23027799 0.42968902 0.4143942 0.10052746 -0.10806132 0.15047787 0.16591862 -0.507213 0.05710171 -0.64789724 -0.052742455 -0.26534134 -0.5620637 0.40772814 0.27278012 -0.05340125 -0.15754858 -0.22440407 -0.26575682 0.5195243 -0.72454154 -0.42882127 -0.086602025 0.17910798 0.7179899 -0.38026786 0.4621154 -0.084994644 0.31876868 -0.48968673 0.24123378 0.21468562 0.52505505 -0.7052586 -0.13578561 -0.11551328 -0.61316305 0.2830886 0.43406093 -0.52323586 -0.70791155 0.22538102 -0.12537248 -0.34178755 0.5513982 -0.4618645 -0.7181855 -0.048815925 0.32901675 0.46486995 -0.38852698 0.16597438 0.33934066 0.07895252 -0.22649115
https://en.wikipedia.org/wiki/Algebraic_function 0.19839042 0.6762989 -0.503158 -0.1579402 -0.05662302 0.4871955 0.2950928 0.08905272 0.33869904 0.4092017 0.1505269 1.1934632 0.15999141 -0.17880443 0.06657203 0.029730001 0.67311877 -0.5399828 0.5882756 -0.22049372 -0.05187014 -0.07834304 -0.02220813 -0.4119469 -0.11752542 0.107199006 0.048660997 -0.525732 0.5666996 -0.78335154 -0.04486877 -0.4619087 -0.4901505 0.38369682 -0.5224542 0.38655224 0.07627263 0.6772906 0.10568162 0.2226355 0.60949373 -0.086197495 -0.19167882 0.4855728 -0.21100451 -0.14478189 -0.28248668 0.041529104 -0.23368533 -0.44388524 0.28694803 0.3770253 -0.11146167 0.35651523 0.35303608 -0.4918248 0.068468705 0.576348 0.20311655 0.051409945 0.7138758 0.12740846 0.49746707 0.3240585
https://en.wikipedia.org/wiki/Bisection#Angle_bisector -0.31289738 0.28318143 -0.2956492 -0.4672669 -0.3465975 0.15526004 0.1501382 0.12584358 -0.23295482 0.35453814 -0.74758375 0.5920327 0.3754214 0.5050188 0.46164745 0.14086446 0.4516067 0.15655093 0.1559847 -0.13417466 -0.16456543 -0.24692568 -0.4280631 0.23270445 -0.16859947 0.2638375 -0.006271339 -0.43300676 0.665713 -0.6385098 -0.297202 -0.64513934 0.40883735 0.95758 -0.444653 0.68379796 -0.024512585 -0.0014723075 -0.036502052 0.6838007 0.005027649 -0.00015736326 -0.3719504 -0.03589444 0.15871075 0.77322376 0.61935616 -0.3846202 -0.25330424 -0.071737625 0.22434328 -0.98666316 0.09052184 0.38950357 -0.023466082 -0.37845135 0.17316411 -0.15159252 0.07925371 -0.43753815 0.89038146 0.50800073 0.42471412 -0.22343953
https://en.wikipedia.org/wiki/Macron_(diacritic) 0.29690573 0.38607344 -0.5025312 -0.1438825 0.05151264 -0.4091276 0.059866525 -0.06327877 -0.09609638 0.05351393 -0.39523315 0.24352652 -0.07150102 0.20776796 -0.539076 -0.37040797 0.39486244 -0.21527486 -0.29761732 0.40219864 -0.19618925 -0.18580167 -0.2434935 -0.26354212 -0.25380942 -0.22556713 0.63370454 -0.01259633 0.12596917 -1.18789 -0.5496654 -1.1916707 0.010488426 0.05274398 0.48103535 0.5012516 -0.38175574 0.28602543 -0.4660024 0.24946547 -0.3873156 -0.14453053 -0.3433593 0.19125412 -0.18811886 0.17762248 -0.27932093 -0.21143375 -0.45121288 -0.52633125 0.19741926 -0.096503034 0.1376399 0.3887958 -0.49458006 -0.39905828 -0.42390534 0.45971185 0.5583797 -0.33603913 0.32421845 0.792501 0.4193767 0.29109347
https://en.wikipedia.org/wiki/Unit_circle 0.20608917 0.6571024 -0.5164905 -0.14492674 -0.06892304 0.49879542 0.3258446 0.076476626 0.29842982 0.4226722 0.1574517 1.1853588 0.13022426 -0.160146 0.051881608 0.050488785 0.6851446 -0.55068034 0.5637139 -0.21426569 -0.07433359 -0.0615563 -0.062104817 -0.43103698 -0.096707486 0.10373581 0.04494886 -0.5294109 0.5714475 -0.7875194 -0.06786749 -0.46717432 -0.4877491 0.37244043 -0.525315 0.3887548 0.09037719 0.6957106 0.09255215 0.24638487 0.6119982 -0.08422963 -0.18278812 0.46563345 -0.23766328 -0.11817564 -0.24967818 0.05450577 -0.25450546 -0.4324418 0.27867457 0.37484947 -0.13368292 0.35844737 0.34486285 -0.46135634 0.055039976 0.58199126 0.22170085 0.038567297 0.699005 0.11403424 0.46360627 0.30453607
https://en.wikipedia.org/wiki/Graph_of_a_function 0.0904031 0.33048192 -0.36908075 0.2732469 0.35434034 0.40417293 0.5651265 -0.126257 -0.35827586 0.39479446 -0.48018476 0.6882945 0.3406353 0.47079846 -0.056599088 0.4815605 0.10965183 0.03585604 -0.12129274 0.09634033 0.61805636 -0.71899563 -0.017892478 -0.020033795 -0.46462128 -0.098329745 0.16808641 -0.28711587 -0.3504176 -0.88878053 -0.904126 0.1127652 0.00643635 0.5413998 0.20704797 0.373305 -0.058276877 0.1510038 -0.17225598 0.5878086 0.4241148 0.017321024 -0.3601472 0.9297258 0.17942604 0.38888124 -0.06373345 0.40173995 -0.34580752 0.099222526 -0.17341062 -0.12416519 -0.03300933 0.12883483 -0.095639676 -0.7055419 -0.42184654 -0.0847616 0.6862654 -0.026689274 0.098206915 -0.2863753 0.33013248 -0.08907258
https://en.wikipedia.org/wiki/Computational_problem 0.17968358 0.30595428 0.21989322 0.29777426 -0.036941014 -0.2870972 0.41359654 0.08247462 -0.52488136 1.0416582 -0.14754532 0.3549687 -0.17688224 -0.51155293 -0.0070352037 -0.27973193 0.61412776 -0.62181133 -0.14373289 -0.003255993 -0.24648295 -0.09985587 0.28368935 -0.22471774 -0.0379128 0.42205197 0.68341166 0.23662934 0.41333768 -0.55011433 -0.16183028 -0.059240416 0.41608408 0.6461167 -0.053025827 0.48641145 -0.49038002 0.19919932 0.32709664 0.84468675 0.21740495 0.1375501 -0.6682712 0.43665856 -0.00018810862 -0.009204096 0.1559314 0.30144426 -0.421757 -0.4751325 0.5780693 -0.19595948 -0.12030193 -0.15278347 0.056075785 -0.7100041 -0.38520518 0.10843929 -0.035360895 -0.62667185 -0.009376696 0.12606217 0.5026354 -0.6672969
https://en.wikipedia.org/wiki/Angle_addition_formulas 0.20580836 0.6553898 -0.522023 -0.14780559 -0.067439966 0.4950195 0.3364116 0.07965108 0.30234623 0.4109241 0.16286524 1.1735717 0.12480434 -0.15501145 0.053802796 0.0559847 0.6922857 -0.5525751 0.5625636 -0.22026059 -0.07494705 -0.06670644 -0.080247685 -0.42977652 -0.10128406 0.11585078 0.04888837 -0.5390136 0.558335 -0.76804554 -0.058173895 -0.4606529 -0.48937276 0.3745925 -0.5260206 0.39923355 0.09489332 0.70119774 0.0898731 0.25030234 0.6122552 -0.0880838 -0.17916827 0.46299276 -0.22526102 -0.12235546 -0.2576677 0.056217995 -0.26187608 -0.44705668 0.284206 0.3740263 -0.13595255 0.35442513 0.3520059 -0.47064874 0.056127448 0.5723179 0.22383647 0.045059055 0.6952276 0.13023992 0.4633927 0.31940436
https://en.wikipedia.org/wiki/Bisection -0.29154605 0.30494538 -0.30168793 -0.44844058 -0.33378252 0.14792809 0.14147398 0.090958394 -0.24895903 0.3614134 -0.77264977 0.58820164 0.39502645 0.5144295 0.46949413 0.12945004 0.45979312 0.13155314 0.12665072 -0.13837197 -0.14020944 -0.22221647 -0.43303254 0.21809736 -0.13933441 0.28949517 -0.021830818 -0.46408302 0.64906865 -0.62565964 -0.30030727 -0.67391175 0.4081384 0.9398562 -0.47030705 0.65710276 -0.0069384254 -0.0068267 -0.059824232 0.68836796 0.002567762 0.011298037 -0.406939 -0.041424002 0.15621337 0.7679147 0.6104619 -0.36135074 -0.254842 -0.0637194 0.23666142 -0.9966531 0.07800045 0.37900496 -0.03472715 -0.379725 0.19045362 -0.15028852 0.07039385 -0.41737133 0.8951815 0.5153681 0.44931436 -0.23688124
https://en.wikipedia.org/wiki/Binary_relation -0.2925224 0.55601805 -0.85778755 -0.3550605 -0.21220253 -0.009022699 0.33528924 -0.3136973 -0.1481022 0.25991362 0.4253131 0.41619155 0.056147184 -0.07068437 0.12750946 0.18682045 -0.5348936 0.005643315 -0.6662411 -0.019575976 -0.27472016 -0.53946406 0.38469824 0.23828946 -0.027795665 -0.17008972 -0.22499608 -0.31543893 0.5152983 -0.7304027 -0.4063281 -0.0775085 0.16757816 0.71631974 -0.40832105 0.46795693 -0.05600345 0.3213341 -0.5205025 0.2807551 0.23289602 0.55656403 -0.6910602 -0.14009416 -0.14284296 -0.58287436 0.29835254 0.4368433 -0.5478171 -0.67287403 0.20727386 -0.14220537 -0.35520107 0.5330285 -0.49918354 -0.759991 -0.03150251 0.33291134 0.4558665 -0.43561038 0.15846871 0.31724635 0.05764178 -0.23678681
https://en.wikipedia.org/wiki/Computer_science 0.18411404 0.32163456 0.16328613 0.2750482 -0.05815719 -0.26355794 0.44476128 0.003303692 -0.5826929 1.082698 -0.16406518 0.32804582 -0.19674158 -0.5416387 -0.0016876332 -0.2594846 0.6279181 -0.6615589 -0.16142274 0.0037106653 -0.20939499 -0.07054449 0.2625139 -0.21082994 0.047873624 0.44840738 0.71094453 0.21776994 0.4224817 -0.6011419 -0.16075903 -0.08649442 0.40301567 0.5804774 -0.06965837 0.49836338 -0.54534733 0.18638821 0.32165688 0.80138123 0.22666839 0.12327971 -0.67214847 0.4613434 0.0039434615 0.009328058 0.1622302 0.337957 -0.43415478 -0.47089505 0.5869937 -0.21070743 -0.13241352 -0.18349677 0.07598851 -0.7462723 -0.35181993 0.035740882 -0.054264434 -0.6445933 0.023300523 0.12215865 0.4266424 -0.6611287
https://en.wikipedia.org/wiki/Definite_integral 0.5748506 0.06265086 -0.3468653 0.057609357 -0.4202608 0.41054353 0.50652695 0.6453737 -0.3913289 0.055359438 -0.6209076 0.37980196 0.27574164 0.008014548 0.3144618 0.13164988 -0.19836266 -0.60917956 -0.15399146 0.43109205 -0.21865341 -0.36625573 -0.5209198 0.39473397 0.32351795 -0.30979326 0.51858556 -0.14998996 -0.1412575 -0.61889505 0.06073623 -0.21967089 -0.08471523 0.39164883 -0.19224878 0.14126696 0.47071874 0.09980925 0.113934904 0.2392742 -0.13170266 0.55037695 -0.61190134 0.62933505 -0.039382797 0.25564352 0.14733577 0.44700074 0.046456106 -0.811815 0.33753517 0.23088479 0.036937494 0.79875904 -0.29030392 -0.36920598 -0.52269346 0.31834814 -0.19226117 -0.43657526 0.76578575 0.12481815 0.24049811 -0.22506756
https://en.wikipedia.org/wiki/Function_(mathematics) 0.16458386 0.68985194 -0.4902387 -0.14106421 -0.03712502 0.47860566 0.29634562 0.07926471 0.32706776 0.40215904 0.12723708 1.1987619 0.13875559 -0.16073109 0.100289434 0.022198165 0.6771405 -0.56197643 0.55659777 -0.19818044 -0.024835903 -0.066046715 -0.0047735516 -0.41198757 -0.11988339 0.09574231 0.038650755 -0.5364323 0.5766571 -0.79427224 -0.04692028 -0.46312907 -0.47742584 0.36323845 -0.52474844 0.38182408 0.079180546 0.68324935 0.1089158 0.21437958 0.6152863 -0.0656223 -0.21218798 0.4736425 -0.2025191 -0.14540495 -0.26784834 0.02991331 -0.21940313 -0.45111132 0.26799554 0.36992526 -0.073793486 0.37172902 0.3737013 -0.48420617 0.039815176 0.5987291 0.19280653 0.057997886 0.6987364 0.12665336 0.49577543 0.3216851
https://en.wikipedia.org/wiki/Minor_(linear_algebra) -0.032993857 0.9977834 -0.45969898 -0.13131675 0.6404261 0.2528404 0.22874606 0.13529566 -0.005226969 0.524858 -0.04832562 0.53699493 0.23518355 0.5443443 0.33649126 -0.28490642 0.19531585 -0.113182984 -0.33008382 0.46991843 -0.28940016 -0.1688771 -0.057071917 -0.26668188 0.54017085 -0.1491762 -0.16325298 0.4071833 0.19714068 -0.30844676 -0.2684334 -0.50254905 -0.74384546 1.02319 0.06867758 0.29698604 -0.19472723 0.5249215 0.14681056 0.0786384 0.13835494 -0.33012715 -0.611923 0.38144702 -0.09674679 0.45159733 0.23472095 -0.083740644 -0.7825325 -0.3696907 0.08100581 0.12536615 -0.05039681 0.520056 -0.2798521 -0.18082304 -0.58188385 -0.47208172 -0.29027343 -0.17810163 0.124589495 0.2350054 -0.088615865 -0.55129886
https://en.wikipedia.org/wiki/Hermitian_adjoint -0.015971547 1.0117611 -0.43268308 -0.098209836 0.62131727 0.29014316 0.12755857 0.11294947 0.07832642 0.5188442 -0.10682845 0.5171463 0.18907338 0.51762545 0.33747122 -0.26199988 0.18740791 -0.19284686 -0.30882475 0.4297353 -0.35759848 -0.19832689 -0.068526275 -0.27136928 0.52109736 -0.12672666 -0.19031096 0.37445706 0.17180559 -0.34225103 -0.25060493 -0.49599534 -0.7744291 1.0141188 0.12683314 0.3271428 -0.1414422 0.553188 0.12679319 0.059321433 0.15328513 -0.3374255 -0.67931914 0.42734507 -0.04016552 0.43307495 0.29756105 -0.027714763 -0.76341355 -0.41525057 0.05363261 0.05005134 -0.027795758 0.4990718 -0.21257383 -0.19028142 -0.55910605 -0.502959 -0.2282924 -0.2037306 0.080411576 0.28779367 -0.16474167 -0.5512551
https://en.wikipedia.org/wiki/Algorithm_(disambiguation) 0.14615256 0.24351832 0.18066008 0.2678318 -0.07266057 -0.27323234 0.41951475 0.043467738 -0.5463664 1.0225372 -0.15244526 0.38134632 -0.22607261 -0.48516124 -0.010964161 -0.27506435 0.605915 -0.625525 -0.12049015 0.020737853 -0.2641892 -0.070558146 0.24151598 -0.23426817 0.03568138 0.43443397 0.6897525 0.26124454 0.3752431 -0.5612547 -0.1411877 -0.06415002 0.42113096 0.61771715 -0.040733825 0.53362584 -0.51680773 0.20574503 0.3376455 0.812659 0.22387145 0.1404281 -0.665807 0.4223584 -0.06613561 -0.028306989 0.16695288 0.32459387 -0.40309906 -0.48476118 0.5517574 -0.21899515 -0.14564618 -0.19482292 0.13460118 -0.76161563 -0.42639768 0.038103513 0.0033918782 -0.6104195 0.0028952595 0.12366189 0.48946255 -0.6822844
https://en.wikipedia.org/wiki/Square_matrix -0.024023406 1.0162388 -0.44086015 -0.12430543 0.6269721 0.27227893 0.19874851 0.12547833 0.014516896 0.5151761 -0.06995354 0.53838706 0.21718292 0.54340476 0.35490382 -0.2820803 0.18255834 -0.14266966 -0.31345585 0.44943115 -0.31697208 -0.18897893 -0.05653014 -0.26941642 0.51967925 -0.14451398 -0.18514733 0.395909 0.1969772 -0.31943718 -0.24280313 -0.516126 -0.7328699 0.9983182 0.10271192 0.2831188 -0.17011596 0.5297313 0.15482523 0.08630165 0.1273955 -0.34571564 -0.6505377 0.40883872 -0.0559051 0.4163399 0.23644164 -0.07280114 -0.761224 -0.4002715 0.0693378 0.081067115 -0.055925608 0.5239495 -0.23945342 -0.20277067 -0.5849634 -0.50260454 -0.26000062 -0.17883748 0.10250688 0.25510585 -0.11809683 -0.5367492
https://en.wikipedia.org/wiki/Therapeutic_drug_monitoring 0.59545285 0.039902616 -0.3708992 0.14190155 -0.40092 0.40082738 0.49598026 0.5922747 -0.37933162 0.034471124 -0.6458006 0.43588117 0.23213995 0.009928803 0.34007365 0.09314214 -0.23364675 -0.5888224 -0.17342964 0.44934967 -0.2502614 -0.34951842 -0.5151662 0.384327 0.2952533 -0.35298297 0.4585883 -0.19742686 -0.14440884 -0.6089921 0.056406956 -0.23133878 -0.10872735 0.37506947 -0.24998665 0.11340868 0.46479684 0.11106098 0.21688548 0.29383266 -0.11816342 0.58662486 -0.6347054 0.61390233 0.0060277986 0.26997808 0.102095686 0.43222305 0.056229547 -0.82620066 0.36175048 0.2410614 0.14459334 0.7564692 -0.30630592 -0.34382093 -0.5297533 0.31674635 -0.1289118 -0.493675 0.8071754 0.13002527 0.17072526 -0.28188643
https://en.wikipedia.org/wiki/Field_of_sets -0.37159854 0.52040374 -0.8927848 -0.3171469 -0.23693807 0.0014903408 0.32796124 -0.3244935 -0.18852869 0.27252445 0.4291382 0.42376414 0.0694418 -0.09677875 0.09308139 0.2006139 -0.47639242 0.029511794 -0.6781613 -0.02439049 -0.2998169 -0.5472357 0.41607824 0.24045636 -0.03796679 -0.19749072 -0.22270735 -0.2609911 0.48416826 -0.7064076 -0.4116373 -0.09854963 0.20695396 0.68973494 -0.40470403 0.4640093 -0.0005345554 0.34067187 -0.49165472 0.24088965 0.23143278 0.5591116 -0.69100237 -0.1414969 -0.11621176 -0.6202389 0.26086238 0.4301762 -0.5661684 -0.693003 0.1968467 -0.14899646 -0.32405216 0.5749703 -0.4354339 -0.69835675 -0.044952378 0.27739942 0.4788249 -0.39978027 0.18958978 0.3349809 0.082068935 -0.26289678
https://en.wikipedia.org/wiki/Antiderivative_(complex_analysis) 0.2679303 0.445422 -1.0744442 -0.54161716 0.33974418 -0.041604124 0.30075672 -0.30688503 -0.091628015 0.6571528 -0.86782235 -0.016700711 0.28263775 0.31140953 0.030092675 -0.117521256 -0.039255608 -0.5575497 -0.12970622 -0.5799304 -0.30035552 0.27257818 0.011225256 0.22909477 -0.19944404 -0.11073383 0.4380089 0.0012037054 0.30430242 -0.4312397 -0.26665387 -0.60499984 -0.028227756 0.59453076 -0.10637998 0.42938042 0.33227497 -0.055698562 0.72767204 0.37112793 0.4688709 -0.2426457 0.20840335 0.28806093 0.09195552 -0.38062474 0.58267844 0.32944098 -0.38364315 -0.5629712 -0.16890638 -0.2533665 0.03428385 0.18614545 -0.4006386 -0.37888685 -0.72904724 0.40623203 0.23037262 -0.120210074 0.19159721 -0.28580123 0.36120737 0.10161576
https://en.wikipedia.org/wiki/Flowchart 0.15515728 0.28170884 0.24229816 0.29793766 -0.050090514 -0.30007407 0.45198166 0.06701501 -0.5508651 1.0317662 -0.13194607 0.33197558 -0.20757374 -0.49898914 -0.007648581 -0.26379403 0.6029366 -0.62771434 -0.14755897 0.032616805 -0.25682738 -0.08101424 0.25744906 -0.25564772 -0.050014704 0.4392236 0.67925435 0.23514213 0.42443606 -0.56790483 -0.1434887 -0.047776606 0.4301388 0.6755674 -0.044015534 0.51846373 -0.49489513 0.21772277 0.34961152 0.8105242 0.2350632 0.12700988 -0.6729048 0.42609063 -0.030912291 0.0046322253 0.18478961 0.32552004 -0.43231016 -0.49169686 0.5575969 -0.19805102 -0.1180869 -0.17074274 0.11674396 -0.7299702 -0.43707123 0.09842107 -0.022311727 -0.6337228 0.014917077 0.13869865 0.49937117 -0.6377037
https://en.wikipedia.org/wiki/Extended_side 0.28648245 0.3865525 -0.3479277 -0.120093755 -0.26018658 0.06353567 -0.11346042 -0.18537296 -0.9337723 0.68133146 -0.028598173 0.821292 0.24297233 0.74493 0.27629417 0.06918647 0.17842096 -0.31320783 0.027702674 0.2921195 -0.19802603 -0.6947435 0.46785864 -0.12714289 -0.08026591 -0.24917856 0.061212704 0.0068854303 -0.18712549 -0.07665499 -0.4840788 -0.2593694 -0.36739823 0.020343091 -0.11510621 0.38547352 -0.21359845 -0.21216935 0.26502606 0.60524726 -0.012691814 -0.22525969 -0.19525722 0.22084299 -0.19815351 0.26642287 0.6914161 0.33827993 -0.6172424 -1.087902 -0.25436252 0.059164945 0.10960194 0.111720614 0.18069433 -0.2679586 0.32309136 0.5569096 -0.043231815 -0.6684806 0.23000012 0.48906693 0.4518084 0.4353132
https://en.wikipedia.org/wiki/Average 0.36045223 0.34251606 -0.4844675 -0.16041382 0.081550516 -0.4074569 0.00037435122 -0.060905036 -0.054734297 0.1564279 -0.37015158 0.22732 -0.066952154 0.2098594 -0.5271611 -0.3327944 0.31928277 -0.17569917 -0.2820735 0.3689054 -0.23672247 -0.18229558 -0.17935342 -0.26805303 -0.17773807 -0.19742556 0.7098579 -0.045226373 0.12723902 -1.2037431 -0.6343914 -1.1288836 -0.029455118 0.030111814 0.4758803 0.5074071 -0.3459654 0.30665588 -0.44133642 0.252207 -0.37777525 -0.1380111 -0.36871827 0.18444628 -0.10373073 0.17999549 -0.34082335 -0.2617648 -0.43556383 -0.52789277 0.16284032 -0.12768629 0.12817578 0.41098735 -0.4962198 -0.41319138 -0.40583715 0.43241146 0.53629494 -0.34657446 0.3935598 0.8033452 0.40156123 0.29439908
https://en.wikipedia.org/wiki/Vertex_(geometry) 0.27681553 0.34711757 -0.3026219 -0.13299312 -0.26981896 0.07359562 -0.1283268 -0.24093123 -0.9525147 0.7422191 -0.07664685 0.8436135 0.24000838 0.7802978 0.28764546 0.077932656 0.16051605 -0.3154458 0.018646523 0.24163295 -0.15029159 -0.70349604 0.44750983 -0.14338839 0.0048442394 -0.2434501 0.07472731 0.03043611 -0.21139705 -0.096000016 -0.45787957 -0.2630576 -0.33895382 0.045230348 -0.08677806 0.37769443 -0.19383241 -0.18197231 0.263305 0.569594 0.034645703 -0.20111105 -0.2408628 0.19661522 -0.25483635 0.22634573 0.692437 0.28790107 -0.5958007 -1.0968645 -0.23602822 0.08122553 0.13723262 0.12420876 0.15854996 -0.25016138 0.33417872 0.54225945 -0.012826613 -0.6271386 0.2181681 0.499815 0.46224812 0.45616993
https://en.wikipedia.org/wiki/Capsule_(pharmacy) 0.5707739 0.06622387 -0.38856548 0.05740802 -0.45119563 0.42567575 0.49826393 0.69203985 -0.41453853 0.02612726 -0.67690694 0.4026294 0.3271503 -0.06550998 0.27634105 0.17057063 -0.20828901 -0.5904043 -0.1232063 0.45237175 -0.28349063 -0.32358453 -0.49715677 0.33908358 0.3344522 -0.29623955 0.5726113 -0.10484716 -0.19181342 -0.57913667 -0.005821053 -0.22632529 -0.07666482 0.40544665 -0.22664694 0.13962406 0.47921658 0.11514535 0.061781783 0.21485244 -0.0950183 0.5321985 -0.57992154 0.6240209 -0.06451488 0.24538468 0.14197329 0.45360106 0.04189305 -0.79910463 0.28962633 0.21907157 0.0371682 0.817452 -0.32366657 -0.41481683 -0.4786619 0.27850398 -0.22326794 -0.46448007 0.7742458 0.12906502 0.25873494 -0.2635756
https://en.wikipedia.org/wiki/Orthocentric_system 0.2753837 0.37848124 -0.36185607 -0.12724178 -0.20736258 0.051044125 -0.08614351 -0.1790348 -0.9128778 0.6362145 -0.026241472 0.80366147 0.23080918 0.70618534 0.30879447 0.09351091 0.19382161 -0.3023003 0.06282651 0.3029735 -0.2321198 -0.7182665 0.4689239 -0.11701523 -0.096526876 -0.22990604 0.08827068 0.00058755005 -0.18150583 -0.077353105 -0.50078034 -0.27356523 -0.3764 0.0072365943 -0.13450763 0.37080467 -0.21972279 -0.2030137 0.2776298 0.61635983 -0.0027309132 -0.2202867 -0.19264226 0.23915754 -0.1940938 0.28338107 0.694343 0.34683898 -0.6185214 -1.0825689 -0.262106 0.039524574 0.10187133 0.11036766 0.15897305 -0.2901696 0.3287014 0.557183 -0.061234113 -0.6675801 0.21396546 0.5049512 0.4264067 0.43072656
https://en.wikipedia.org/wiki/Intersection_(set_theory) -0.38032293 0.5305929 -0.87116116 -0.33034068 -0.24551922 -0.0020651289 0.37729982 -0.29095137 -0.18389472 0.26039404 0.42385703 0.3872584 0.08383226 -0.13768817 0.12178282 0.13326782 -0.5104831 0.03321641 -0.65317 -0.07642837 -0.24339332 -0.5436569 0.43586326 0.24371938 -0.041786768 -0.1905031 -0.1869176 -0.3385028 0.48404372 -0.761936 -0.4429956 -0.12040984 0.13935848 0.7129965 -0.3977195 0.42725006 -0.060447928 0.31177726 -0.52227455 0.18431115 0.24424788 0.53772646 -0.7068175 -0.13941424 -0.083715014 -0.5786259 0.3146784 0.4548055 -0.5507728 -0.7027705 0.20824787 -0.16294177 -0.30214173 0.5815735 -0.42286652 -0.7118293 -0.028637778 0.33301443 0.4123225 -0.3562065 0.101313755 0.36778557 0.07481967 -0.26211616
https://en.wikipedia.org/wiki/Experiment 0.38744864 0.3003932 -0.48069954 -0.1382336 0.11168391 -0.39000684 0.06773633 -0.107301734 -0.091582075 0.118869685 -0.37710002 0.2671342 -0.098751694 0.19650464 -0.53470826 -0.37217528 0.35211477 -0.18069488 -0.25918764 0.390196 -0.23424916 -0.1531131 -0.20767209 -0.27887604 -0.18324727 -0.21205236 0.6839668 -0.06543753 0.15382734 -1.2015771 -0.528064 -1.1226501 -0.08493984 0.015167407 0.4801664 0.5085181 -0.3532193 0.3126699 -0.475281 0.30071008 -0.36093268 -0.120441 -0.39137626 0.14242093 -0.16508117 0.1992325 -0.28719386 -0.2170529 -0.40988356 -0.54157317 0.11452553 -0.19568193 0.15244009 0.41367877 -0.5424184 -0.39690265 -0.4104214 0.40760285 0.59689844 -0.35109776 0.34840533 0.78402257 0.37076783 0.3035505
https://en.wikipedia.org/wiki/Matrix_(mathematics) -0.05116085 0.95377 -0.4882289 -0.14445496 0.63366914 0.2769442 0.21050622 0.1318459 0.03762703 0.48924282 -0.08595679 0.4828846 0.20483227 0.5181975 0.31405693 -0.2603534 0.21630412 -0.14415114 -0.27071306 0.4580775 -0.2757883 -0.1676478 -0.06605212 -0.25673866 0.53669614 -0.16257691 -0.1879668 0.41806337 0.1664695 -0.33140072 -0.24496439 -0.4843319 -0.7536606 1.0165422 0.08493486 0.33756548 -0.2263624 0.520477 0.12972736 0.0764755 0.16999902 -0.3338114 -0.6494631 0.37018433 -0.110053845 0.49062884 0.28835672 -0.072080165 -0.8251874 -0.38158414 0.10712512 0.13900957 0.00064245367 0.5099602 -0.28325504 -0.24351422 -0.54654455 -0.4499724 -0.2994499 -0.17715596 0.088063575 0.22944824 -0.11829076 -0.5504087
https://en.wikipedia.org/wiki/Right_angle 0.33280826 0.36827624 -0.31783885 -0.11869907 -0.2803541 0.063797824 -0.11629921 -0.24485326 -0.9453582 0.7592102 -0.044662632 0.8415173 0.28613952 0.78225434 0.27256373 0.08539035 0.1552302 -0.32845995 -0.0179314 0.23307115 -0.1409945 -0.7014597 0.42991793 -0.14430892 -0.006982833 -0.26722246 0.060632627 0.0056536146 -0.1880837 -0.10751267 -0.43325883 -0.27161953 -0.37460136 0.054568574 -0.09165762 0.36346823 -0.24148665 -0.23281959 0.26691875 0.5824454 0.027143657 -0.20939773 -0.22422719 0.17115656 -0.24029419 0.2528082 0.67543435 0.32383096 -0.5951392 -1.0909941 -0.19434 0.061645325 0.12129973 0.13562866 0.17850424 -0.21775378 0.33109918 0.5208708 0.0041665053 -0.63657683 0.20544955 0.4929366 0.48601174 0.4578033
https://en.wikipedia.org/wiki/Complement_(set_theory) -0.32879117 0.5390901 -0.85416627 -0.3694119 -0.19955848 0.010518 0.36404422 -0.31932664 -0.21863852 0.22421513 0.43493983 0.4310094 0.09310816 -0.09295105 0.13506578 0.1669536 -0.54920644 0.047643084 -0.65085936 -0.02666956 -0.2762331 -0.560674 0.38219658 0.25985846 -0.054813217 -0.1301994 -0.21438435 -0.29612863 0.53171957 -0.6849971 -0.43265125 -0.107082695 0.14710058 0.7377809 -0.37055 0.46813977 -0.09200567 0.29896033 -0.48634365 0.2765761 0.20401704 0.55403554 -0.6880421 -0.1427949 -0.10971412 -0.6093384 0.2575018 0.40770593 -0.5310025 -0.69729924 0.26596013 -0.12094152 -0.35901916 0.53979605 -0.46084216 -0.73424166 -0.05470198 0.36488533 0.4691189 -0.39133644 0.16665146 0.30306363 0.043574266 -0.22852829
https://en.wikipedia.org/wiki/Liquid_chromatography%E2%80%93mass_spectrometry 0.53607863 0.06924446 -0.29375187 0.02625468 -0.4373699 0.40033573 0.50727344 0.6313519 -0.35476062 0.06919886 -0.6027437 0.3661942 0.25051212 0.05302204 0.35072014 0.088759534 -0.20663804 -0.6368119 -0.16617227 0.4156329 -0.16638906 -0.4141571 -0.51538396 0.47058687 0.3431112 -0.30961782 0.5131082 -0.14773242 -0.121200375 -0.62218493 0.08739669 -0.21583082 -0.075729884 0.3721299 -0.14195494 0.21020426 0.45336306 0.09913641 0.13072647 0.24072336 -0.17319064 0.53308755 -0.5870988 0.6517782 -0.018613733 0.28197163 0.14632581 0.46414196 0.045154005 -0.8350619 0.38942707 0.27830464 0.0028984773 0.8174472 -0.24873106 -0.3631025 -0.54820883 0.34574354 -0.1586856 -0.37695873 0.78909653 0.12123723 0.22552899 -0.22069848
https://en.wikipedia.org/wiki/Ada_Lovelace 0.13972418 0.23897775 0.2639281 0.29283962 -0.06690793 -0.30030558 0.42479157 0.054093786 -0.5388195 1.0112729 -0.13031764 0.36424318 -0.20979139 -0.4652933 -0.014933093 -0.27273384 0.5907511 -0.635787 -0.1520227 0.031733677 -0.273627 -0.0792026 0.25119147 -0.2622188 -0.022131857 0.43680206 0.6707739 0.24074808 0.4207504 -0.5666485 -0.1258316 -0.046055052 0.41864532 0.67091554 -0.03241801 0.5359787 -0.48018646 0.21362986 0.3548392 0.81595844 0.23112504 0.13940187 -0.6660586 0.4247253 -0.070418485 -0.0136404 0.18598092 0.3246004 -0.42106292 -0.48801956 0.5310508 -0.20585215 -0.12027814 -0.15913281 0.1255307 -0.7547647 -0.46181467 0.06419455 0.011804884 -0.6117512 0.019074548 0.13635492 0.509002 -0.6347402
https://en.wikipedia.org/wiki/Distance 0.10158589 0.32304427 -0.3425906 0.26564944 0.37089947 0.38769513 0.5758618 -0.11935995 -0.3476189 0.4073725 -0.4669246 0.69800353 0.32628563 0.5038418 -0.04202821 0.47465116 0.11729245 0.053698033 -0.10971806 0.08419539 0.61805475 -0.73506963 -0.034316536 -0.0027567649 -0.45543694 -0.06875102 0.18490988 -0.29727644 -0.33596143 -0.91744405 -0.9318017 0.13289276 0.014608998 0.5525543 0.1892363 0.37207666 -0.07196316 0.14786986 -0.14885576 0.5747798 0.39003888 0.020955298 -0.33732423 0.95274097 0.18107824 0.36670026 -0.06484814 0.38950542 -0.33117032 0.09097146 -0.1659563 -0.11332591 -0.03938557 0.1533186 -0.105255544 -0.6920043 -0.41512948 -0.077623755 0.6796294 -0.042569425 0.07353116 -0.29205078 0.28993618 -0.06517351
https://en.wikipedia.org/wiki/Analysis_of_algorithms 0.13863002 0.29523614 0.25657895 0.3322926 -0.043968037 -0.3395032 0.41517833 0.117142476 -0.5204519 1.0261607 -0.11130065 0.36906353 -0.17132236 -0.5233138 0.022359235 -0.24166796 0.6127805 -0.6027622 -0.14980818 -0.007358216 -0.26140934 -0.08928122 0.26444083 -0.23992725 -0.08098427 0.430152 0.684431 0.24809486 0.38583946 -0.56576234 -0.19724956 -0.06079457 0.41175228 0.69167644 -0.049264506 0.4941505 -0.4500103 0.24287376 0.34171066 0.8173769 0.24646808 0.13654466 -0.6580534 0.37204957 0.009145701 0.021912621 0.16052705 0.30750912 -0.44200504 -0.52096474 0.5456982 -0.17399979 -0.07620783 -0.18452519 0.05971591 -0.69191265 -0.44379374 0.14200614 -0.030619591 -0.65537167 0.015996868 0.1264317 0.5564895 -0.688843
https://en.wikipedia.org/wiki/Trigonometric_functions 0.23238595 0.6804186 -0.5120456 -0.12176087 -0.07055138 0.49611682 0.29526672 0.0903181 0.28879055 0.33333895 0.13449168 1.1321235 0.10009408 -0.16594392 0.06841458 0.06733146 0.71212983 -0.5511157 0.57019895 -0.2724669 -0.09898042 -0.07205985 -0.098063655 -0.4675975 -0.120311365 0.15487151 0.023465477 -0.5595203 0.49520817 -0.74675417 -0.04534251 -0.47398633 -0.50928515 0.44792026 -0.561456 0.37965038 0.123669595 0.72298104 0.0328322 0.2619767 0.63141537 -0.05336092 -0.14920832 0.46659598 -0.19463113 -0.13020082 -0.2778796 0.06209538 -0.34318352 -0.45119262 0.32469827 0.371537 -0.09204853 0.3488955 0.37416536 -0.5038801 0.039189078 0.56515014 0.20302647 -0.02615138 0.65448713 0.11987474 0.47237903 0.37996778
https://en.wikipedia.org/wiki/Operation_(mathematics) -0.35334516 0.5379423 -0.85282636 -0.346138 -0.20788853 -0.0019879616 0.36037582 -0.29702115 -0.16082284 0.25704396 0.428422 0.3839179 0.060066063 -0.099167675 0.15914005 0.2140031 -0.4832989 0.032354098 -0.65439343 -0.054301724 -0.28161365 -0.53208524 0.44260085 0.24662423 -0.010223873 -0.21061006 -0.2031638 -0.27801287 0.49362135 -0.76072353 -0.4388743 -0.08960724 0.18860345 0.68277496 -0.4142297 0.4190349 -0.045118805 0.31394637 -0.52598023 0.20811932 0.22599083 0.5300729 -0.6729617 -0.13389787 -0.12726708 -0.5984856 0.29857537 0.44647586 -0.56579834 -0.69380766 0.21944574 -0.15217046 -0.314742 0.57608604 -0.43234876 -0.7134718 -0.039552797 0.29335797 0.4726236 -0.40168545 0.15879741 0.3410825 0.103619054 -0.26503497
https://en.wikipedia.org/wiki/Exponential_function 0.20102054 0.6891962 -0.5216278 -0.11279345 -0.08832202 0.51547897 0.2877033 0.08133585 0.2862911 0.389079 0.102782026 1.1792622 0.15251175 -0.18190682 0.0877826 0.025412612 0.6924088 -0.5420362 0.57305413 -0.20879321 -0.07266314 -0.045413893 -0.028806895 -0.45407087 -0.1298516 0.062064648 0.0021354721 -0.52596575 0.561504 -0.82255894 -0.09084592 -0.4599119 -0.4744805 0.40738237 -0.5446451 0.37082237 0.08545005 0.71991175 0.07694175 0.24341255 0.60385984 -0.046713874 -0.14826266 0.4395405 -0.22846723 -0.15110819 -0.26387104 0.0415618 -0.30628031 -0.39946303 0.29948393 0.40185368 -0.06813295 0.35311288 0.3752784 -0.45680836 0.024697984 0.5864432 0.17652425 -0.012385154 0.690036 0.09917652 0.510652 0.32843924
https://en.wikipedia.org/wiki/Pharmacokinetics 0.58813053 0.054375097 -0.3695239 0.07087677 -0.42085227 0.40973458 0.5012103 0.6285943 -0.3992085 0.047732316 -0.65333295 0.4102712 0.28404224 -0.027272392 0.3254812 0.123264775 -0.21473137 -0.60110825 -0.14282766 0.4585834 -0.26688913 -0.34513593 -0.52433985 0.36800233 0.2975897 -0.33008224 0.5106134 -0.15004371 -0.14526221 -0.6099248 0.025119966 -0.20028482 -0.10633742 0.38614014 -0.2147616 0.10483752 0.4576625 0.10143451 0.13357605 0.25359157 -0.109855786 0.55013996 -0.6238574 0.62178487 -0.037161127 0.24106768 0.14275178 0.45066214 0.023162207 -0.78949124 0.33668777 0.22733973 0.08807011 0.7883679 -0.31109697 -0.36046374 -0.511219 0.29994607 -0.16691999 -0.4724039 0.79690653 0.12760775 0.22597955 -0.25084442
https://en.wikipedia.org/wiki/Positive_number 0.080900095 0.31413087 -0.33072102 0.25731847 0.3922433 0.39113432 0.5673734 -0.126074 -0.31587595 0.39545017 -0.48861498 0.7074971 0.3458907 0.48992825 -0.061505187 0.4911576 0.12854867 0.057968684 -0.12450866 0.09497256 0.6302829 -0.7402922 -0.04858932 -0.014077345 -0.48178396 -0.06037972 0.18907157 -0.3043843 -0.35946637 -0.86316955 -0.9280748 0.12876254 0.007891168 0.54240674 0.19638336 0.37661573 -0.050861955 0.14225252 -0.15587792 0.57822084 0.3969783 0.038804587 -0.3591762 0.94159174 0.16138999 0.3545041 -0.058221694 0.39548504 -0.3529651 0.09534203 -0.17285205 -0.119794786 -0.056181803 0.14779529 -0.0754171 -0.6951754 -0.43994102 -0.050513335 0.6759624 -0.052046742 0.0742323 -0.27511498 0.28606337 -0.083367735
https://en.wikipedia.org/wiki/Leibniz_integral_rule 0.2580715 0.43010348 -1.0807965 -0.5307591 0.32612163 -0.057785656 0.27990162 -0.2644498 -0.10756454 0.6116774 -0.81041604 -0.014769936 0.34120932 0.26796177 0.0044430047 -0.07738264 0.018366238 -0.55432945 -0.11269352 -0.57749254 -0.31791347 0.29867572 0.027373295 0.1840155 -0.18340248 -0.09151857 0.39478642 -0.00025604657 0.25850153 -0.44099224 -0.27786657 -0.5655472 -0.024239257 0.6628358 -0.069027156 0.46931118 0.3940361 -0.073592484 0.7809999 0.43240875 0.40307358 -0.23673172 0.2804268 0.21868622 0.12473797 -0.36515236 0.5680073 0.32293716 -0.4162115 -0.5486202 -0.14944422 -0.20336035 0.046754796 0.24568386 -0.4290809 -0.33585098 -0.74882084 0.4133527 0.30001393 -0.1874613 0.17441915 -0.29907322 0.36620814 0.093980245
https://en.wikipedia.org/wiki/Mean 0.39745325 0.30491406 -0.47695884 -0.11688758 0.113916285 -0.3857559 0.032600056 -0.11809971 -0.07100642 0.13002747 -0.3734995 0.2539149 -0.10210136 0.20940569 -0.51341814 -0.33966762 0.3314225 -0.17548227 -0.26101485 0.3854066 -0.25135657 -0.1393439 -0.22073856 -0.27496496 -0.15505478 -0.19307628 0.7007475 -0.05789889 0.15855554 -1.2087696 -0.57861334 -1.1197252 -0.077931136 0.008340622 0.47374204 0.52149683 -0.35956594 0.29958063 -0.46444687 0.28204706 -0.3702687 -0.119121 -0.4255075 0.15287144 -0.13925834 0.16756319 -0.3252698 -0.24424861 -0.42247626 -0.52942777 0.09915325 -0.1943553 0.1628404 0.40245986 -0.5380109 -0.389083 -0.40685138 0.4223658 0.5850821 -0.36190677 0.37150708 0.7920961 0.37614658 0.3207205
https://en.wikipedia.org/wiki/Absolute_value_(disambiguation) 0.098543055 0.33537924 -0.36027643 0.26433018 0.36194718 0.39885944 0.5647378 -0.12788577 -0.35045192 0.40149117 -0.46642652 0.69268656 0.31946933 0.48548082 -0.04370296 0.47570235 0.110361494 0.033302225 -0.11562972 0.09641205 0.6074984 -0.7246698 -0.026174985 -0.0068974076 -0.4547951 -0.081746444 0.17571844 -0.2928069 -0.3363497 -0.90172607 -0.90615624 0.122737184 0.013090269 0.5440147 0.19805846 0.36823896 -0.06756488 0.1375093 -0.15967886 0.5772556 0.40841714 0.019785197 -0.3432104 0.9381771 0.1941876 0.3890681 -0.06852343 0.3987102 -0.3331399 0.09838848 -0.17517012 -0.11608583 -0.033076838 0.14650005 -0.09770476 -0.70225716 -0.41448653 -0.0879563 0.6923232 -0.033314448 0.08334637 -0.28718993 0.31267577 -0.080130994
https://en.wikipedia.org/wiki/Base_(geometry) 0.35900736 0.32907942 -0.28875846 -0.111789875 -0.23225895 0.034672283 -0.099710785 -0.2922455 -0.9262456 0.7397372 -0.05484631 0.81568205 0.2955566 0.76878583 0.2964742 0.14135738 0.1597684 -0.317717 -0.0060960646 0.18912488 -0.15765156 -0.74317026 0.42568174 -0.15695414 0.053204395 -0.2636445 0.092817 -0.015185943 -0.20880476 -0.102012046 -0.4082809 -0.29062557 -0.3936699 0.07201301 -0.10019123 0.33991718 -0.26462775 -0.22908561 0.26739135 0.58922315 0.07707878 -0.2114746 -0.23862483 0.15684673 -0.27889618 0.26856682 0.6697974 0.33879057 -0.57345283 -1.0896922 -0.15604647 0.04131603 0.12349565 0.17689615 0.15142451 -0.21612865 0.3395678 0.5050321 0.020854516 -0.6046991 0.18286519 0.5160631 0.49270234 0.47013453
https://en.wikipedia.org/wiki/Lists_of_integrals 0.279712 0.45245868 -1.0737075 -0.5962873 0.32710126 -0.035091907 0.34128314 -0.31066647 -0.11864449 0.6348754 -0.8834076 -0.045056593 0.34688255 0.3198999 0.00692707 -0.1328913 -0.006340454 -0.5446912 -0.12099984 -0.6100585 -0.273643 0.27062222 0.03735644 0.1978556 -0.1410073 -0.07361677 0.44450662 0.03975783 0.27962208 -0.39843848 -0.25440156 -0.6056272 -0.032530814 0.55709404 -0.10383454 0.46774918 0.33970103 -0.00971119 0.74785405 0.3544873 0.48209772 -0.21733902 0.20541508 0.26258096 0.02833912 -0.37342057 0.5688288 0.37092426 -0.37304997 -0.5363053 -0.20152111 -0.26703927 0.08056926 0.20414785 -0.41979763 -0.45596698 -0.7169915 0.41145548 0.25999922 -0.13384712 0.22621833 -0.26051694 0.32178593 0.082116865
https://en.wikipedia.org/wiki/Trapezoidal_rule 0.54795027 0.07369783 -0.31320685 0.03274145 -0.44892758 0.4200614 0.51121837 0.646471 -0.37481403 0.05056888 -0.64134324 0.39963984 0.28962192 0.012234866 0.32858327 0.11098634 -0.214838 -0.6306512 -0.15168689 0.44302592 -0.22470672 -0.3888222 -0.5045738 0.42192397 0.3393563 -0.3042149 0.54309326 -0.1308869 -0.15513144 -0.6060993 0.05118224 -0.2069695 -0.089124866 0.38553104 -0.16425706 0.20352095 0.44969982 0.11584237 0.123040326 0.23080881 -0.14322145 0.5265873 -0.5708994 0.619827 -0.020167626 0.24276485 0.13379598 0.4500686 0.028709585 -0.8145954 0.3473773 0.23971236 0.014665104 0.8040903 -0.27844694 -0.38058418 -0.5199844 0.31775936 -0.15398961 -0.4121267 0.804185 0.12536402 0.22733149 -0.24517149
https://en.wikipedia.org/wiki/Statistics 0.37696663 0.33073094 -0.4912232 -0.109005496 0.062671 -0.35870343 0.0032797996 -0.13790981 -0.10918945 0.08386437 -0.35429826 0.2176941 -0.08202281 0.17808363 -0.47816458 -0.33960673 0.35492826 -0.19534615 -0.24074407 0.38497484 -0.21844597 -0.123278454 -0.2811215 -0.22926983 -0.17257828 -0.16940348 0.69405025 -0.045367185 0.11748645 -1.1665459 -0.5943706 -1.134933 -0.067108035 -0.006744818 0.4475053 0.5076389 -0.3744179 0.3394192 -0.4812305 0.27260432 -0.36175635 -0.18139586 -0.43107513 0.18265721 -0.15837213 0.13983706 -0.29193467 -0.2432723 -0.4536752 -0.5042089 0.09844542 -0.19541419 0.13930745 0.408705 -0.5238503 -0.38973442 -0.43607378 0.45693338 0.59020567 -0.37628698 0.33558932 0.80554855 0.38422918 0.28043377
https://en.wikipedia.org/wiki/Real_number 0.098716795 0.33100778 -0.3262349 0.286582 0.38545126 0.4411315 0.5705899 -0.13889815 -0.3452439 0.40677977 -0.49252877 0.7019318 0.3454068 0.4911821 -0.057809953 0.48067325 0.13462326 0.07908897 -0.15528077 0.1033458 0.62135565 -0.74522966 -0.041432403 -0.0025010826 -0.48516265 -0.06751778 0.16841692 -0.29871702 -0.36710152 -0.8968686 -0.9379652 0.08573488 0.04958781 0.56132877 0.14386794 0.35220316 -0.064947 0.17590857 -0.17173794 0.5536379 0.40340257 0.032471187 -0.32844844 0.95456487 0.16806826 0.35684943 -0.0746808 0.3905023 -0.36317185 0.0545208 -0.1450768 -0.13509087 -0.0096464185 0.13074914 -0.07071268 -0.6847888 -0.45512226 -0.06410329 0.65484965 -0.06371957 0.065997265 -0.31060627 0.30068362 -0.050894924
https://en.wikipedia.org/wiki/Commutative_ring -0.033800658 1.0290731 -0.43345958 -0.116263576 0.6555323 0.2895833 0.21071483 0.14795785 -0.014358676 0.5338509 -0.029979093 0.549902 0.24180971 0.5360584 0.3333147 -0.28286627 0.18933994 -0.17080933 -0.3283604 0.4780692 -0.31411505 -0.15909144 -0.07209539 -0.30932423 0.5257864 -0.15199994 -0.14557347 0.41583353 0.20400493 -0.2874577 -0.30096364 -0.53526 -0.7237107 0.9952633 0.10638895 0.26834077 -0.14006862 0.5243947 0.12140356 0.06452443 0.10182829 -0.3231351 -0.6215374 0.38103744 -0.025705824 0.40562117 0.26915222 -0.04839281 -0.76819026 -0.3919743 0.08704715 0.044879343 -0.05189043 0.5378905 -0.20832497 -0.18740141 -0.5709295 -0.503011 -0.26620182 -0.1220571 0.11904182 0.24340913 -0.11984319 -0.5436106
https://en.wikipedia.org/wiki/Triangle 0.2956523 0.30332914 -0.28017795 -0.13768968 -0.18048835 0.04202885 -0.108171046 -0.26421043 -0.9220039 0.6901277 -0.08813408 0.82536757 0.2280413 0.73217976 0.33477616 0.1442471 0.17001618 -0.30425736 0.0734398 0.20769401 -0.20081745 -0.77180284 0.44735846 -0.1460825 0.04284531 -0.21954119 0.13481998 0.009465822 -0.22788842 -0.0977795 -0.45973 -0.28840357 -0.37120882 0.06143974 -0.101201564 0.34698507 -0.21915872 -0.18812272 0.26763025 0.58729804 0.091994464 -0.21141848 -0.22870584 0.2030856 -0.30531678 0.25793368 0.6992751 0.32341453 -0.5946233 -1.1035037 -0.2084608 0.041808676 0.1353882 0.18108775 0.11450571 -0.25434074 0.3694959 0.53797984 -0.004680467 -0.60227597 0.1674322 0.54532486 0.44615918 0.44924325
https://en.wikipedia.org/wiki/Conjugate_transpose -0.047430642 0.9570962 -0.470003 -0.10724441 0.6062136 0.28514847 0.14538085 0.105079524 0.054862287 0.48017585 -0.090661265 0.47058436 0.16720262 0.5071731 0.3064725 -0.26659364 0.2020213 -0.1714683 -0.26792097 0.43395716 -0.31740856 -0.17946793 -0.06712345 -0.25028536 0.5169371 -0.14404632 -0.17989078 0.3882513 0.16359511 -0.32205415 -0.25231287 -0.48369324 -0.80391484 1.041202 0.10230198 0.3248598 -0.18937606 0.55178344 0.116899714 0.08201416 0.17796737 -0.3298023 -0.67678046 0.41224402 -0.066837385 0.47418633 0.30764246 -0.05245746 -0.7788459 -0.40034336 0.06105095 0.090047106 -0.029729154 0.492717 -0.2388232 -0.2031224 -0.5658369 -0.48301858 -0.26461393 -0.21579166 0.09181282 0.27013415 -0.15765904 -0.5379422
https://en.wikipedia.org/wiki/Mathematical_structure -0.33080527 0.5537756 -0.8649552 -0.34448406 -0.23762086 -0.019359818 0.38357678 -0.30050218 -0.2004997 0.22769843 0.43620327 0.42393857 0.11453941 -0.11823439 0.13409758 0.10644118 -0.54752547 0.033327624 -0.65523636 -0.06213965 -0.2279988 -0.5633143 0.39367834 0.2753162 -0.06739817 -0.14684713 -0.20470585 -0.31925544 0.5281684 -0.72974706 -0.42862076 -0.10752464 0.12670292 0.7354527 -0.3780835 0.44974712 -0.088991135 0.30272865 -0.5136569 0.24405126 0.21781312 0.5317405 -0.7138391 -0.12313666 -0.09901859 -0.58176273 0.30015278 0.42184183 -0.520684 -0.6992057 0.22713013 -0.13364421 -0.3487403 0.5323702 -0.47458398 -0.7284221 -0.040028654 0.37008694 0.40174878 -0.3599865 0.116801575 0.33229488 0.06705228 -0.2320494
https://en.wikipedia.org/wiki/Rolle%27s_theorem 0.2436401 0.44509247 -1.0845187 -0.50991833 0.36938527 -0.083402485 0.29619706 -0.30647597 -0.118930705 0.6662511 -0.8371731 -0.036370046 0.30952364 0.2683552 0.028764684 -0.07637473 -0.00015962379 -0.5830969 -0.13898814 -0.5672249 -0.31304556 0.27300152 -0.012894578 0.2455505 -0.21227622 -0.10568862 0.3966279 -0.0014794458 0.30779445 -0.4421626 -0.27865565 -0.6153908 -0.040115945 0.6344905 -0.11205919 0.42188102 0.378018 -0.08618879 0.75531435 0.36869353 0.41374856 -0.2440182 0.26172078 0.27518594 0.10130251 -0.36850116 0.5701872 0.32997483 -0.3943566 -0.5693896 -0.15804416 -0.22705366 0.018612418 0.21947236 -0.3923529 -0.36819658 -0.73298115 0.384502 0.26143083 -0.13241778 0.17854829 -0.28886676 0.3912035 0.122540876
https://en.wikipedia.org/wiki/Survey_(statistics) 0.33367914 0.3453623 -0.48474193 -0.13109538 0.11086482 -0.40277633 0.07808743 -0.0705086 -0.074950576 0.10835232 -0.407762 0.27998194 -0.09623388 0.2429681 -0.54169244 -0.3606964 0.3504705 -0.19744878 -0.29930076 0.39472106 -0.22652243 -0.1771306 -0.19156122 -0.29025903 -0.20023872 -0.23189962 0.65321076 -0.044656813 0.17818023 -1.2090224 -0.5363859 -1.1561733 -0.024593696 0.05430009 0.48720673 0.5179206 -0.36772618 0.24189903 -0.43893114 0.2631097 -0.38807192 -0.08010392 -0.3808732 0.15658844 -0.1631216 0.18005697 -0.32164598 -0.2136407 -0.42012557 -0.5347862 0.15801148 -0.11892915 0.15756385 0.3814795 -0.5017695 -0.39596018 -0.39054975 0.42184967 0.5471572 -0.32491264 0.35701495 0.7639944 0.39166898 0.32289577
https://en.wikipedia.org/wiki/Negative_number 0.075639516 0.3023197 -0.34070867 0.2446182 0.36724538 0.3572872 0.5716517 -0.102100365 -0.32808682 0.38682994 -0.4724225 0.6851692 0.34814247 0.50223875 -0.050820343 0.49787286 0.115239725 0.044817545 -0.09933931 0.07290454 0.6303979 -0.72076565 -0.024102882 -0.031088281 -0.4709627 -0.09295781 0.18750876 -0.3031367 -0.3403742 -0.88719165 -0.92146146 0.14331186 -0.007453516 0.5506405 0.23816806 0.3775409 -0.060956575 0.13567853 -0.14462742 0.5921616 0.40349787 0.01455288 -0.37247145 0.94866693 0.1547141 0.37461007 -0.051643983 0.40379757 -0.33353704 0.11844098 -0.16717716 -0.095268674 -0.070325635 0.15241314 -0.10791076 -0.70672953 -0.40663987 -0.06358876 0.6875397 -0.039806113 0.09119649 -0.28110218 0.29677644 -0.09030082
https://en.wikipedia.org/wiki/Well-defined_expression 0.14582701 0.22166796 0.25883722 0.28443995 -0.07346772 -0.29164615 0.38842642 0.07788824 -0.5139897 0.9947042 -0.13496666 0.41097343 -0.22116876 -0.4465754 -0.019399012 -0.30035594 0.6025647 -0.6189281 -0.13979639 -0.0023217474 -0.29343492 -0.095815696 0.26804617 -0.25480798 -0.01399471 0.42217445 0.6598205 0.26292372 0.40574747 -0.552152 -0.12273856 -0.03083387 0.41748828 0.678134 -0.022382056 0.5230407 -0.47133535 0.20461196 0.35102093 0.86401063 0.22748832 0.14629546 -0.6736477 0.4319536 -0.08693525 -0.041812073 0.17190298 0.30809584 -0.4113178 -0.49290907 0.5245762 -0.20893545 -0.13192424 -0.13622531 0.0910169 -0.760313 -0.476281 0.06319652 0.033618018 -0.6027775 0.0115447985 0.13086997 0.5563839 -0.66118824
https://en.wikipedia.org/wiki/Euclid%27s_algorithm 0.14378034 0.286743 0.20716022 0.3137676 -0.068703964 -0.30757654 0.3978749 0.05118767 -0.5384363 1.0416225 -0.120461635 0.37149957 -0.18636075 -0.5300625 0.025404345 -0.24260558 0.6264774 -0.6364053 -0.16371377 -0.02578479 -0.22987477 -0.070567876 0.2604594 -0.21760337 0.005925882 0.4410103 0.697353 0.24154828 0.3880934 -0.58639693 -0.1874682 -0.07168594 0.39476174 0.6154264 -0.062216625 0.48740298 -0.48992383 0.21483147 0.3329865 0.8030161 0.24226558 0.1310574 -0.65481764 0.39838856 0.0007443215 0.012114762 0.14849077 0.32120013 -0.43491778 -0.50512475 0.5445207 -0.19182953 -0.079095796 -0.20024998 0.048529908 -0.7230224 -0.4115903 0.054606955 -0.036419235 -0.6513146 0.03601592 0.117585436 0.50918 -0.6931825
https://en.wikipedia.org/wiki/Set_(mathematics) -0.40180907 0.54819703 -0.88564855 -0.30825767 -0.25271443 -0.0293546 0.39025143 -0.3036157 -0.20043764 0.24647518 0.42710045 0.41479144 0.11113104 -0.13160561 0.13460216 0.14893048 -0.48515186 0.045999132 -0.65609956 -0.06897574 -0.25718907 -0.5391794 0.4551462 0.26867774 -0.046272337 -0.20230892 -0.18263394 -0.26203808 0.4927389 -0.7722087 -0.4421187 -0.10829889 0.1823431 0.69279826 -0.42690316 0.4301212 -0.0029666699 0.3054831 -0.51909506 0.19104524 0.23369114 0.51722634 -0.6997601 -0.10306324 -0.09936139 -0.61066747 0.28679037 0.43264902 -0.5873547 -0.7195249 0.20000991 -0.13781244 -0.29545 0.5786783 -0.42653546 -0.6906167 -0.030668318 0.28239265 0.43111625 -0.35020643 0.15551195 0.3801327 0.116985634 -0.27127007
https://en.wikipedia.org/wiki/Geometry 0.29735652 0.37843442 -0.33811948 -0.11287289 -0.2151744 0.0487487 -0.08137749 -0.22144349 -0.950249 0.6469428 -0.021835348 0.7988257 0.2301269 0.727447 0.2981526 0.12713848 0.20911853 -0.30477065 0.06160549 0.2582849 -0.23960736 -0.74371964 0.487959 -0.1380657 -0.038529824 -0.25900504 0.11190202 -0.026164686 -0.19796312 -0.07186457 -0.46711263 -0.2673549 -0.4023802 0.024869673 -0.1263956 0.3343074 -0.21424726 -0.21218458 0.28010243 0.6329416 0.011200484 -0.21473998 -0.18984951 0.19316562 -0.20581329 0.28996748 0.68531114 0.3418027 -0.6282306 -1.0840145 -0.2417612 0.03513968 0.12933502 0.12300112 0.14381397 -0.2713431 0.32714388 0.54125875 -0.03333412 -0.64879894 0.22304268 0.5153807 0.44304115 0.4362565
https://en.wikipedia.org/wiki/Continuous_function 0.26974753 0.45788804 -1.0819846 -0.56117517 0.3327677 -0.054275192 0.3067486 -0.24712476 -0.08815935 0.61257905 -0.8424909 -0.03023235 0.34771293 0.26861152 0.0026842835 -0.07653142 0.014087545 -0.55105686 -0.11512354 -0.5858323 -0.33237284 0.2848483 0.06362601 0.18843701 -0.16183136 -0.10599178 0.43129176 -0.019687401 0.26167873 -0.42900395 -0.29325387 -0.5650083 -0.0262457 0.6391081 -0.07239417 0.47050244 0.3847079 -0.06785212 0.77218854 0.4872725 0.43304285 -0.22937945 0.28880808 0.21629469 0.096641 -0.36382815 0.5571532 0.3180403 -0.3991765 -0.5346759 -0.13809195 -0.19576159 0.05546885 0.242447 -0.4407555 -0.33957633 -0.7301829 0.39076656 0.28408813 -0.19092569 0.164782 -0.2961554 0.3349568 0.10361778
https://en.wikipedia.org/wiki/Non-negative 0.07458742 0.3232441 -0.3488404 0.23092735 0.3552767 0.3582286 0.5683951 -0.12369397 -0.3392247 0.37586847 -0.48639545 0.70680046 0.37227243 0.47937706 -0.0631735 0.49921092 0.12993443 0.037034176 -0.107565805 0.09195893 0.62948596 -0.7106644 -0.035349447 -0.0309592 -0.4722503 -0.10958425 0.20931025 -0.30320597 -0.35515717 -0.8726691 -0.9158368 0.12387359 -0.0029994824 0.5648681 0.2388253 0.39045408 -0.04448972 0.13215102 -0.13700616 0.58429587 0.4179908 0.03606399 -0.3912597 0.92340386 0.1569043 0.373516 -0.057527095 0.42371562 -0.35370216 0.12549458 -0.17833968 -0.092349775 -0.069352694 0.13379385 -0.094907686 -0.70969516 -0.40249196 -0.07176132 0.68316424 -0.0352037 0.09017511 -0.2638249 0.28884774 -0.09068886
https://en.wikipedia.org/wiki/Limit_of_a_function 0.26740775 0.42444512 -1.1222565 -0.48622537 0.3587517 -0.06960985 0.29110032 -0.32909358 -0.12740164 0.68769574 -0.82911867 -0.026550582 0.28829968 0.2966364 0.027943745 -0.10157237 -0.01679283 -0.5941515 -0.14714897 -0.5943549 -0.28186765 0.29381278 -0.07130239 0.25350714 -0.2539546 -0.105310515 0.36695462 0.018083042 0.3329276 -0.45493796 -0.26429877 -0.6087656 -0.03925931 0.6371585 -0.097182475 0.3768279 0.3427868 -0.08124377 0.7471974 0.28127876 0.4096329 -0.2590414 0.19313803 0.3186565 0.12308725 -0.38250405 0.60565203 0.32361317 -0.3737327 -0.5814322 -0.17289856 -0.2625253 0.011670667 0.18844421 -0.3559013 -0.38500848 -0.72048753 0.4159493 0.22996327 -0.12556759 0.16622725 -0.2705928 0.4128678 0.1128277
https://en.wikipedia.org/wiki/Linear_algebra -0.02516735 0.9694801 -0.50215405 -0.16372195 0.62943757 0.30176935 0.22934896 0.1515315 0.0012409918 0.4973477 -0.068921104 0.49303263 0.22887392 0.5258881 0.33996144 -0.28740352 0.23884872 -0.112427376 -0.25549588 0.47738495 -0.2586788 -0.16178468 -0.06408664 -0.2780384 0.48281968 -0.10701697 -0.19564973 0.41996533 0.17920089 -0.3085468 -0.24677315 -0.51127285 -0.7597179 1.0314134 0.097975984 0.3264034 -0.23016018 0.4979378 0.13174528 0.099745676 0.12631123 -0.299342 -0.6652434 0.33884627 -0.120903626 0.4570119 0.2471782 -0.08192411 -0.79803914 -0.41772616 0.07553505 0.14314412 -0.02047152 0.5217609 -0.3196461 -0.24486156 -0.568491 -0.47142726 -0.31605664 -0.1651913 0.0790945 0.18399477 -0.10679381 -0.5375508
https://en.wikipedia.org/wiki/Tablet_(pharmacy) 0.57111156 0.06493815 -0.3421873 0.05713141 -0.4440977 0.43495852 0.5088552 0.6573428 -0.39134082 0.03805121 -0.65515316 0.4172425 0.30213702 -0.008286939 0.3119107 0.13005066 -0.21589503 -0.6236473 -0.1510822 0.46174112 -0.2597034 -0.36234254 -0.5066683 0.38332552 0.32645687 -0.3101919 0.5500296 -0.12849732 -0.17436755 -0.60163355 0.03928754 -0.20135796 -0.09659629 0.38959908 -0.19607446 0.16641426 0.46131212 0.11566969 0.13002098 0.22819701 -0.12462067 0.54521334 -0.5821705 0.60290986 -0.026203612 0.22498377 0.12341791 0.43853584 0.029359002 -0.8041105 0.3245426 0.21947627 0.045903545 0.7966742 -0.2998409 -0.38324475 -0.50660324 0.30234045 -0.16634557 -0.45273307 0.8082236 0.1272205 0.22557308 -0.2587707
https://en.wikipedia.org/wiki/Mathematics 0.09091432 0.3254289 -0.3442396 0.28198555 0.39530033 0.4202102 0.5447924 -0.11721304 -0.3300285 0.40347168 -0.48673692 0.6963662 0.3260875 0.4830256 -0.062505245 0.49973544 0.11003333 0.037993107 -0.14982875 0.10931209 0.5986232 -0.73974365 -0.026521277 -0.014747187 -0.4784375 -0.062633745 0.14877392 -0.3016911 -0.3600668 -0.8742768 -0.9054496 0.09367189 0.033743583 0.53983265 0.178096 0.3482941 -0.07347987 0.15991943 -0.1773014 0.5859634 0.41151246 0.01397046 -0.3380287 0.948113 0.17774497 0.3803293 -0.062207565 0.39281195 -0.3476048 0.07907356 -0.15789987 -0.1326812 -0.04450759 0.14794116 -0.075511985 -0.69592977 -0.4534372 -0.053338457 0.6858772 -0.058502078 0.09562234 -0.29886448 0.33228084 -0.08861897
https://en.wikipedia.org/wiki/Line_segment 0.303866 0.37054256 -0.35073745 -0.13151212 -0.20890136 0.04675733 -0.083939865 -0.20561823 -0.9209305 0.661136 -0.015651945 0.8071346 0.25583532 0.7195306 0.3094334 0.101598114 0.18781044 -0.30812347 0.04251931 0.28779545 -0.21441612 -0.72704256 0.45622888 -0.1218518 -0.07965939 -0.24580267 0.08530624 -0.007958397 -0.17428511 -0.0776233 -0.4786262 -0.27671278 -0.39170972 0.014347073 -0.12453849 0.35726887 -0.23885442 -0.2240886 0.2837623 0.6161061 0.0006404865 -0.22132985 -0.19983098 0.21681924 -0.19845603 0.28698367 0.6909524 0.3511115 -0.6139693 -1.0864552 -0.23099639 0.044981174 0.1086936 0.1140055 0.16814086 -0.26620257 0.33413228 0.54568255 -0.043739453 -0.6623738 0.20670019 0.50933033 0.4411888 0.44781587
https://en.wikipedia.org/wiki/Concentration 0.574422 0.06598262 -0.36584726 0.032790676 -0.4432773 0.4218393 0.5081436 0.67392457 -0.41185525 0.049092144 -0.65767676 0.3865867 0.3193027 -0.048215654 0.30056834 0.15163502 -0.20165001 -0.61067766 -0.12890159 0.4516708 -0.25598037 -0.34822056 -0.51616806 0.3746812 0.32641673 -0.30781046 0.55921286 -0.11747424 -0.15774105 -0.5990426 0.021474447 -0.20903571 -0.087682 0.3951884 -0.19573867 0.12710421 0.4712334 0.09980772 0.068151176 0.2169566 -0.11145158 0.5295233 -0.60477775 0.6335014 -0.063850515 0.24487525 0.15376681 0.4630436 0.03521268 -0.7986501 0.3218976 0.2264888 0.025899937 0.8196409 -0.30895507 -0.3925656 -0.4991712 0.2933176 -0.21114896 -0.44816887 0.7805597 0.12584381 0.26175538 -0.23534894
https://en.wikipedia.org/wiki/Geometric_mean 0.37163317 0.33720154 -0.47939822 -0.14421663 0.075933665 -0.41687703 0.012955224 -0.088134885 -0.051409047 0.11406768 -0.35620904 0.24370657 -0.07620905 0.18635668 -0.50444084 -0.32403544 0.35097724 -0.17452464 -0.2698288 0.38375348 -0.2575517 -0.17199473 -0.23882388 -0.28438273 -0.20449278 -0.18781999 0.67232174 -0.018501183 0.10625873 -1.1966811 -0.6057728 -1.1042992 -0.038184572 0.039520804 0.4646946 0.500915 -0.34366935 0.31951693 -0.4658458 0.26319534 -0.3575246 -0.14443973 -0.3638691 0.18479186 -0.12971173 0.17238921 -0.28860715 -0.24408351 -0.4360497 -0.5323678 0.16233148 -0.1542172 0.16053444 0.39256966 -0.53002465 -0.38035938 -0.42757192 0.42873734 0.57638127 -0.3819529 0.37009367 0.7966252 0.3982972 0.3074933
https://en.wikipedia.org/wiki/Transpose -0.017340308 0.9696811 -0.49045298 -0.16025953 0.61373144 0.29008767 0.23582432 0.14556028 -0.009293343 0.49368718 -0.0701867 0.5070936 0.21937482 0.54405695 0.3570829 -0.29514802 0.22457524 -0.09372746 -0.26218528 0.46689704 -0.2594005 -0.17102213 -0.050232485 -0.2684167 0.4718496 -0.109366424 -0.19991091 0.4100084 0.19821672 -0.30378467 -0.24031979 -0.5135853 -0.7634287 1.0287379 0.08942769 0.30287296 -0.23418474 0.50886214 0.15718779 0.10673038 0.119881734 -0.31406638 -0.67197245 0.35921353 -0.11820399 0.43950802 0.21760377 -0.101365276 -0.78459543 -0.4244809 0.05712975 0.13609502 -0.04945382 0.5261888 -0.31624684 -0.23787646 -0.59557 -0.49108422 -0.309801 -0.17814226 0.09077147 0.19499162 -0.09284904 -0.5315232
https://en.wikipedia.org/wiki/Fundamental_theorem_of_calculus 0.25268903 0.43862632 -1.0757827 -0.5273065 0.34621653 -0.05229191 0.32154575 -0.3035718 -0.09590357 0.64804494 -0.8544516 -0.037070353 0.29777175 0.29111922 0.032575004 -0.10196276 -0.014316836 -0.54364157 -0.14598094 -0.55686045 -0.3024246 0.27601805 0.016417358 0.24171963 -0.19325617 -0.11010313 0.4350697 -0.0030661873 0.31317037 -0.42927006 -0.2856615 -0.61662376 -0.05871898 0.6174238 -0.11089491 0.4252687 0.3434924 -0.050182857 0.73516965 0.39356816 0.457794 -0.23224917 0.24906549 0.28581455 0.07617458 -0.3595982 0.5830305 0.33048716 -0.3636639 -0.55562824 -0.14636382 -0.23501213 0.05537225 0.20648949 -0.38841382 -0.38110813 -0.7195558 0.40992823 0.23910262 -0.13619533 0.158851 -0.27902567 0.38066366 0.108921625
https://en.wikipedia.org/wiki/Sign_(mathematics) 0.08389902 0.3575787 -0.34166 0.20980397 0.3752966 0.34855485 0.56027454 -0.15936472 -0.32555547 0.37837008 -0.4898104 0.7645694 0.3758977 0.47438264 -0.07011263 0.48770824 0.15296516 0.025767764 -0.11258065 0.12619828 0.62996167 -0.7296163 -0.08880025 0.00029505586 -0.4695828 -0.06806576 0.25107947 -0.30913585 -0.36861157 -0.8588717 -0.92068815 0.13870288 0.013027243 0.57745373 0.21622342 0.40800825 -0.022653516 0.10797276 -0.10457512 0.566135 0.39724353 0.09011674 -0.38431364 0.9037264 0.19155227 0.34389326 -0.07470028 0.43827078 -0.37395084 0.15577805 -0.22170496 -0.07914948 -0.07497742 0.13216068 -0.071235746 -0.6923604 -0.40151605 -0.06688696 0.68580794 -0.03721949 0.053564165 -0.21973449 0.23687066 -0.0766841
https://en.wikipedia.org/wiki/Mean_value_theorem 0.24070652 0.39242765 -1.0836583 -0.4656733 0.3665752 -0.07660886 0.30856365 -0.37040716 -0.08613604 0.6188021 -0.8301952 -0.013711919 0.3180145 0.28238112 0.034499977 -0.08074331 -0.023874728 -0.5802764 -0.15315458 -0.573428 -0.3127297 0.27723426 -0.023958577 0.2510174 -0.17771015 -0.0702505 0.41487 -0.005352757 0.30681098 -0.42857182 -0.26919475 -0.63785136 -0.061460715 0.6543816 -0.107278906 0.46507493 0.35488245 -0.046778567 0.7808253 0.34076127 0.39796454 -0.23073934 0.28372684 0.30316418 0.12847514 -0.36539504 0.6115898 0.34723362 -0.38996872 -0.5692419 -0.18269192 -0.24276756 0.048335727 0.24169807 -0.35576925 -0.37474954 -0.7415885 0.43470332 0.2598708 -0.11109322 0.14544755 -0.26312664 0.43315643 0.08681402
https://en.wikipedia.org/wiki/Perpendicular 0.29898304 0.3777564 -0.33856902 -0.12608266 -0.24629861 0.062140107 -0.08296793 -0.23903878 -0.9532376 0.6880963 -0.012890923 0.80063754 0.26303643 0.75643915 0.2904393 0.09480505 0.19185847 -0.31035557 0.014989976 0.27075556 -0.18742123 -0.70738393 0.46289244 -0.13408121 -0.04171848 -0.26946813 0.07538578 -0.008642967 -0.17858818 -0.07153402 -0.45630765 -0.26830426 -0.38005874 0.013622645 -0.116587095 0.3552958 -0.22658242 -0.20406827 0.28471458 0.61356443 -0.004953947 -0.20723055 -0.22773072 0.189627 -0.18610029 0.27219328 0.68155336 0.31882504 -0.6083441 -1.0867007 -0.2360663 0.07014821 0.12529673 0.09157597 0.17399175 -0.26207915 0.30717996 0.5360749 -0.025700793 -0.6618617 0.24361739 0.49256486 0.4583486 0.4660655
https://en.wikipedia.org/wiki/Elliptic_function 0.22165863 0.66690695 -0.5196353 -0.13311577 -0.0876855 0.5098716 0.29691374 0.08206766 0.2933617 0.39230487 0.13410386 1.1658553 0.14319825 -0.17898878 0.060838383 0.044648264 0.6890793 -0.5371212 0.57883 -0.23036735 -0.092055835 -0.057503663 -0.059534702 -0.45060483 -0.11403024 0.0948222 0.024006344 -0.5279778 0.54329824 -0.7915356 -0.07800334 -0.46315527 -0.4840028 0.4107073 -0.5373379 0.37472954 0.09079519 0.70427823 0.07001008 0.24570435 0.60414493 -0.06477121 -0.14831942 0.4547006 -0.23154937 -0.13382758 -0.26383173 0.055973023 -0.30135736 -0.40716368 0.30435374 0.3851772 -0.10740567 0.34528136 0.35679662 -0.4587335 0.050276786 0.568287 0.19537666 -0.0032534238 0.68656033 0.100155614 0.48608187 0.3238132
https://en.wikipedia.org/wiki/Polynomial 0.21188873 0.66054857 -0.5306919 -0.12999435 -0.08381732 0.50679433 0.33027926 0.085260265 0.28595415 0.38792184 0.1381518 1.1558318 0.12861055 -0.16357867 0.06454438 0.046985008 0.6960492 -0.5490355 0.56036025 -0.23023126 -0.08102073 -0.055435788 -0.08445172 -0.45408124 -0.103996985 0.10787961 0.024172196 -0.53587914 0.54369706 -0.771924 -0.075073704 -0.45406485 -0.4854102 0.39258015 -0.54023707 0.3926896 0.09964706 0.72259474 0.07230737 0.24952371 0.611023 -0.07566096 -0.1534023 0.4370788 -0.22214223 -0.12733975 -0.26368555 0.060537595 -0.30026016 -0.42436987 0.29280773 0.38640162 -0.114728235 0.34218872 0.35918197 -0.46479216 0.040100373 0.56392276 0.20653495 0.0026993458 0.67836756 0.12645313 0.4791593 0.33623186
https://en.wikipedia.org/wiki/Cofactor_matrix -0.02634783 1.0025989 -0.46466473 -0.13352211 0.629705 0.27282023 0.21176851 0.12220298 0.0076715527 0.5050427 -0.0758174 0.5228801 0.2207518 0.5273085 0.34825954 -0.28873277 0.20700078 -0.12062289 -0.29901776 0.46062204 -0.298566 -0.18540311 -0.058162462 -0.25765377 0.5064802 -0.12386698 -0.19164792 0.39273885 0.18655616 -0.33035612 -0.24200858 -0.50686455 -0.75706804 1.0279638 0.08826104 0.29797187 -0.20159054 0.5155644 0.15538359 0.097258046 0.14138986 -0.32167602 -0.6415696 0.3873573 -0.094484404 0.44162816 0.2349879 -0.07846801 -0.76275116 -0.39926425 0.067711614 0.122114114 -0.038180433 0.51151127 -0.28241652 -0.2003637 -0.58323854 -0.4873586 -0.28055286 -0.20193018 0.10132689 0.23828553 -0.113533884 -0.5306254
https://en.wikipedia.org/wiki/Blood_plasma 0.58710134 0.047279958 -0.38450304 0.09617305 -0.41876557 0.38200945 0.49257973 0.6315307 -0.39755854 0.047689714 -0.6309164 0.37289783 0.2514564 -0.025104446 0.33106264 0.1336811 -0.21189138 -0.5825076 -0.1460623 0.43298113 -0.23863667 -0.34189695 -0.53595865 0.3809943 0.31876922 -0.33235726 0.4873083 -0.17233598 -0.124930516 -0.6094932 0.03557156 -0.24224241 -0.08283472 0.38299888 -0.23360465 0.08892622 0.47438145 0.08941093 0.11736548 0.27057734 -0.124290384 0.5537459 -0.63889146 0.662984 -0.05450451 0.29971024 0.15416911 0.46131817 0.061786536 -0.81435394 0.35235628 0.26317802 0.08652617 0.7980091 -0.29306775 -0.3580924 -0.5216006 0.31546116 -0.19201311 -0.4447443 0.7494628 0.11673174 0.22584775 -0.24199338
